\data\
ngram 1=5
ngram 2=5
ngram 3=4

\1-grams:
-0.9031 </s> -0.3010
-0.9031 <s> -0.2430
-0.9031 OPERA -0.2430
-1.2041 CLOSE -0.2430
-1.2041 OPEN -0.2430

\2-grams:
-0.6021 <s> CLOSE 0.0000
-0.6021 <s> OPEN 0.0000
-0.3010 OPERA </s> -0.3010
-0.3010 CLOSE OPERA 0.0000
-0.3010 OPEN OPERA 0.0000

\3-grams:
-0.3010 <s> CLOSE OPERA
-0.3010 <s> OPEN OPERA
-0.3010 CLOSE OPERA </s>
-0.3010 OPEN OPERA </s>

\end\